{
    "seed": "zagreb",
    "subjectsCount": 100,
    "enemiesCount": 5,
    "level": 17,
    "brain": {
        "levels": [
            {
                "inputs": [
                    0.4236405230014876, 0.33490654251174046, 0,
                    0.07905288089343776, 0.5417907600230736
                ],
                "outputs": [1, 1, 1, 0, 1, 0],
                "biases": [
                    -0.07510311984144456, -0.2724425629147562,
                    0.07857467526229657, 0.49513752233347696,
                    -0.48718107445814945, 0.3189698280701867
                ],
                "weights": [
                    [
                        -0.06917444600797412, 0.14378702146956007,
                        -0.18892911183003977, 0.2839359944118961,
                        -0.25795888679207324, 0.30595904479895797
                    ],
                    [
                        0.14874709712124995, -0.11915185080488616,
                        0.11369644227442824, 0.20223092278682156,
                        -0.08418651783700795, -0.40730170433951596
                    ],
                    [
                        0.39329407375548325, 0.41876715563784783,
                        0.16558097053604318, 0.08152975055802045,
                        -0.10949850193234822, -0.1094908691048512
                    ],
                    [
                        0.08673466440828134, -0.3559176096073474,
                        0.2514388205401802, 0.5841010132705379,
                        0.26045487754137703, 0.20033026677136984
                    ],
                    [
                        -0.00233876624385633, -0.16124151594355726,
                        0.3542213759956303, 0.4728498931099199,
                        0.4841405142591996, -0.08617903755777553
                    ]
                ]
            },
            {
                "inputs": [1, 1, 1, 0, 1, 0],
                "outputs": [1, 0, 0, 0],
                "biases": [
                    -0.0849714488768017, 0.13661685373726296,
                    -0.24028616054828478, -0.33604032406829887
                ],
                "weights": [
                    [
                        0.23534619036280194, -0.199434970481728,
                        -0.30682029380941045, -0.10851588850129092
                    ],
                    [
                        0.5996698356726955, 0.2112958712210585,
                        -0.1890553366234196, 0.19788931333058596
                    ],
                    [
                        -0.38033285509497683, -0.25732018932337297,
                        0.23060563434020945, -0.5087661494713659
                    ],
                    [
                        0.025974319302592735, 0.4348159827325152,
                        0.5246646895430072, -0.16565576934449264
                    ],
                    [
                        0.3372312500775753, -0.6228907068538092,
                        -0.4741285409981491, -0.2448235657402845
                    ],
                    [
                        0.12953724172968567, -0.10874758100271167,
                        0.14096485081160956, -0.2685621664643674
                    ]
                ]
            }
        ]
    }
}
